{"gradients/net.0.linear.weight":{"_type":"histogram","values":[1,0,1,2,0,0,0,0,1,0,5,2,0,2,6,3,4,4,6,10,2,8,7,7,9,7,5,4,3,5,1,4,3,2,2,1,0,3,1,0,1,0,3,0,2,0,0,0,0,0,0,0,0,0,0,0,0,0,0,0,0,0,0,1],"bins":[-2.160795098404833e-08,-2.068015803047274e-08,-1.975236685325399e-08,-1.88245738996784e-08,-1.7896782722459648e-08,-1.6968989768884057e-08,-1.6041198591665307e-08,-1.5113405638089716e-08,-1.4185613572692546e-08,-1.3257821507295375e-08,-1.2330029441898205e-08,-1.1402237376501034e-08,-1.0474444422925444e-08,-9.546652357528274e-09,-8.618860292131103e-09,-7.691068226733933e-09,-6.763276161336762e-09,-5.8354840959395915e-09,-4.907692030542421e-09,-3.979899521056041e-09,-3.05210745565887e-09,-2.1243153902616996e-09,-1.1965231028199241e-09,-2.6873092640045115e-10,6.590612500190218e-10,1.5868534264384948e-09,2.5146456028579678e-09,3.4424378902997432e-09,4.370229955696914e-09,5.298022021094084e-09,6.225814530580465e-09,7.153606595977635e-09,8.081400437731645e-09,9.009192503128816e-09,9.936984568525986e-09,1.0864776633923157e-08,1.1792568699320327e-08,1.2720361652895917e-08,1.3648153718293088e-08,1.4575945783690258e-08,1.550373696090901e-08,1.64315299144846e-08,1.735932286806019e-08,1.828711404527894e-08,1.921490699885453e-08,2.014269817607328e-08,2.1070491129648872e-08,2.1998282306867623e-08,2.2926075260443213e-08,2.3853868214018803e-08,2.4781659391237554e-08,2.5709452344813144e-08,2.6637243522031895e-08,2.7565036475607485e-08,2.8492827652826236e-08,2.9420620606401826e-08,3.0348413559977416e-08,3.127620473719617e-08,3.220399591441492e-08,3.313179064434735e-08,3.40595818215661e-08,3.498737299878485e-08,3.59151641760036e-08,3.684295890593603e-08,3.777075008315478e-08]},"gradients/net.2.linear.weight":{"bins":[-4.491668192940779e-08,-4.3382669900893234e-08,-4.184865787237868e-08,-4.031464584386413e-08,-3.8780633815349574e-08,-3.724662178683502e-08,-3.571260975832047e-08,-3.4178597729805915e-08,-3.264458570129136e-08,-3.111057367277681e-08,-2.9576559867905416e-08,-2.8042547839390863e-08,-2.650853581087631e-08,-2.4974523782361757e-08,-2.3440511753847204e-08,-2.190649972533265e-08,-2.0372487696818098e-08,-1.8838475668303545e-08,-1.7304463639788992e-08,-1.577045161127444e-08,-1.4236439582759886e-08,-1.2702426666066913e-08,-1.116841463755236e-08,-9.634402609037807e-09,-8.100390580523253e-09,-6.5663785520087e-09,-5.032366523494147e-09,-3.4983540508903843e-09,-1.9643420223758312e-09,-4.3032988283897566e-10,1.1036822566978799e-09,2.637694507257038e-09,4.171706535771591e-09,5.705718564286144e-09,7.239730592800697e-09,8.77374262131525e-09,1.0307754649829803e-08,1.1841767566522776e-08,1.337577959503733e-08,1.4909790735373463e-08,1.6443802763888016e-08,1.7977816568759408e-08,1.951182859727396e-08,2.1045840625788514e-08,2.2579852654303068e-08,2.411386468281762e-08,2.5647876711332174e-08,2.7181888739846727e-08,2.871590076836128e-08,3.024991457323267e-08,3.1783926601747226e-08,3.331793863026178e-08,3.485195065877633e-08,3.6385962687290885e-08,3.791997471580544e-08,3.945398674431999e-08,4.0987998772834544e-08,4.25220108013491e-08,4.405602282986365e-08,4.5590034858378203e-08,4.7124046886892756e-08,4.865805891540731e-08,5.019207094392186e-08,5.1726082972436416e-08,5.326009500095097e-08],"_type":"histogram","values":[1,2,1,0,1,2,2,8,8,6,18,15,16,34,29,44,58,71,72,99,108,113,133,160,162,178,200,215,207,245,219,202,188,201,155,131,114,96,108,76,80,68,44,61,41,26,20,20,7,5,7,6,3,3,2,1,2,1,0,0,0,0,0,1]},"gradients/net.4.linear.bias":{"bins":[-9.738284489912985e-08,-9.443328252700667e-08,-9.148371304945613e-08,-8.853415067733295e-08,-8.558458830520976e-08,-8.263501882765922e-08,-7.968545645553604e-08,-7.67358869779855e-08,-7.378632460586232e-08,-7.083676223373914e-08,-6.78871927561886e-08,-6.493763038406541e-08,-6.198806090651487e-08,-5.903849853439169e-08,-5.608893616226851e-08,-5.313937023743165e-08,-5.018980431259479e-08,-4.724023838775793e-08,-4.4290672462921066e-08,-4.1341110090797883e-08,-3.839154416596102e-08,-3.544197824112416e-08,-3.249241586900098e-08,-2.9542849944164118e-08,-2.6593284019327257e-08,-2.3643718094490396e-08,-2.0694153946010374e-08,-1.7744589797530352e-08,-1.4795023872693491e-08,-1.184545883603505e-08,-8.895893799376609e-09,-5.946328762718167e-09,-2.9967708314870833e-09,-4.7205794828641956e-11,2.9023592418297994e-09,5.851924278488241e-09,8.801489315146682e-09,1.1751054351805124e-08,1.4700619388463565e-08,1.7650183536943587e-08,2.0599749461780448e-08,2.354931538661731e-08,2.649887953509733e-08,2.9448443683577352e-08,3.239800960841421e-08,3.5347575533251074e-08,3.8297137905374257e-08,4.124670383021112e-08,4.419626975504798e-08,4.714583567988484e-08,5.00954016047217e-08,5.304496397684488e-08,5.5994529901681744e-08,5.8944095826518605e-08,6.189365819864179e-08,6.484322767619233e-08,6.779279004831551e-08,7.074235242043869e-08,7.369192189798923e-08,7.664148427011241e-08,7.95910466422356e-08,8.254061611978614e-08,8.549017849190932e-08,8.843974796945986e-08,9.138931034158304e-08],"_type":"histogram","values":[1,0,0,0,0,0,0,0,1,2,0,0,0,0,0,1,0,1,0,2,1,1,2,2,0,2,1,6,2,1,3,1,4,0,2,1,2,3,3,1,1,5,2,2,0,0,3,1,0,0,0,2,1,0,0,0,0,0,0,0,0,0,0,1]},"parameters/net.1.linear.bias":{"values":[1,2,1,1,0,0,2,1,1,1,1,0,1,0,1,0,1,1,2,2,1,2,2,1,3,0,1,0,0,0,0,0,0,0,1,1,1,1,0,1,0,0,2,2,1,5,4,0,2,0,1,1,1,0,2,3,0,0,2,0,1,0,0,3],"bins":[-0.12861312925815582,-0.12479601800441742,-0.12097890675067902,-0.11716178804636002,-0.11334467679262161,-0.10952756553888321,-0.1057104542851448,-0.1018933430314064,-0.0980762243270874,-0.094259113073349,-0.0904420018196106,-0.08662489056587219,-0.08280777931213379,-0.07899066805839539,-0.07517354935407639,-0.07135643810033798,-0.06753932684659958,-0.06372221559286118,-0.059905100613832474,-0.05608798936009407,-0.05227087438106537,-0.048453763127326965,-0.04463665187358856,-0.04081953689455986,-0.03700242564082146,-0.033185314387083054,-0.029368199408054352,-0.02555108815431595,-0.021733975037932396,-0.017916861921548843,-0.014099749736487865,-0.010282637551426888,-0.006465531885623932,-0.0026484192349016666,0.0011686934158205986,0.004985806066542864,0.008802918717265129,0.012620031833648682,0.016437143087387085,0.020254256203770638,0.02407136932015419,0.027888482436537743,0.031705595552921295,0.0355227068066597,0.0393398180603981,0.043156933039426804,0.04697404429316521,0.05079115927219391,0.05460827052593231,0.058425381779670715,0.06224249675869942,0.06605961173772812,0.06987672299146652,0.07369383424520493,0.07751094549894333,0.08132805675268173,0.08514517545700073,0.08896228671073914,0.09277939796447754,0.09659650921821594,0.10041362047195435,0.10423073172569275,0.10804785043001175,0.11186496168375015,0.11568207293748856],"_type":"histogram"},"gradients/net.3.linear.weight":{"values":[5,2,10,14,6,17,14,17,13,25,34,55,53,67,72,81,94,95,109,137,140,180,179,170,201,213,203,210,195,150,156,154,165,117,114,105,78,66,57,58,55,38,31,29,24,22,17,15,9,7,7,6,0,1,1,1,1,0,0,0,0,0,0,1],"bins":[-4.557224286827477e-08,-4.383465679325127e-08,-4.209707071822777e-08,-4.035948464320427e-08,-3.862189856818077e-08,-3.688431249315727e-08,-3.514672286542009e-08,-3.340913679039659e-08,-3.167155071537309e-08,-2.9933964640349586e-08,-2.8196378565326086e-08,-2.6458792490302585e-08,-2.4721206415279084e-08,-2.2983620340255584e-08,-2.1246032488875244e-08,-1.9508446413851743e-08,-1.7770860338828243e-08,-1.6033274263804742e-08,-1.4295687300602822e-08,-1.2558101225579321e-08,-1.0820514262377401e-08,-9.0829281873539e-09,-7.3453421123304e-09,-5.607755593217689e-09,-3.870169074104979e-09,-2.1325825549922683e-09,-3.949962579241628e-10,1.3425901501662452e-09,3.080176558256653e-09,4.817763077369364e-09,6.555349152392864e-09,8.292936115594784e-09,1.0030522190618285e-08,1.1768108265641786e-08,1.3505695228843706e-08,1.5243282192045626e-08,1.6980868267069127e-08,1.8718454342092627e-08,2.0456040417116128e-08,2.219362649213963e-08,2.393121434351997e-08,2.566880041854347e-08,2.740638649356697e-08,2.914397256859047e-08,3.088155864361397e-08,3.261914471863747e-08,3.435673079366097e-08,3.609431686868447e-08,3.7831902943707973e-08,3.956949257144515e-08,4.1307078646468653e-08,4.3044664721492154e-08,4.4782250796515655e-08,4.6519836871539155e-08,4.8257422946562656e-08,4.9995009021586156e-08,5.173259509660966e-08,5.347018117163316e-08,5.520776724665666e-08,5.694535687439384e-08,5.868294294941734e-08,6.042052547172716e-08,6.215811509946434e-08,6.389569762177416e-08,6.563328724951134e-08],"_type":"histogram"},"parameters/net.1.linear.weight":{"_type":"histogram","values":[1,0,0,1,0,1,0,1,1,2,1,7,6,8,8,11,14,11,17,30,33,42,52,56,90,88,108,146,156,159,217,214,238,243,260,251,254,242,196,165,153,103,99,83,88,48,40,26,22,24,15,19,11,8,8,10,3,3,0,0,0,2,0,1],"bins":[-0.0257915947586298,-0.025039423257112503,-0.024287251755595207,-0.02353508025407791,-0.022782906889915466,-0.02203073538839817,-0.021278563886880875,-0.02052639238536358,-0.019774220883846283,-0.019022049382328987,-0.01826987788081169,-0.017517706379294395,-0.0167655348777771,-0.016013361513614655,-0.015261190012097359,-0.014509018510580063,-0.013756847009062767,-0.013004675507545471,-0.012252504006028175,-0.011500331573188305,-0.010748160071671009,-0.009995988570153713,-0.009243816137313843,-0.008491644635796547,-0.007739473134279251,-0.006987301632761955,-0.006235129665583372,-0.005482957698404789,-0.004730786196887493,-0.003978614695370197,-0.003226442728191614,-0.0024742709938436747,-0.0017220992594957352,-0.0009699275251477957,-0.00021775579079985619,0.0005344159435480833,0.0012865876778960228,0.0020387594122439623,0.0027909311465919018,0.0035431028809398413,0.004295274615287781,0.005047446116805077,0.00579961808398366,0.006551790051162243,0.007303961552679539,0.008056133054196835,0.008808305487036705,0.009560476988554,0.010312648490071297,0.011064819991588593,0.011816991493105888,0.012569163925945759,0.013321335427463055,0.01407350692898035,0.014825679361820221,0.015577850863337517,0.016330022364854813,0.01708219386637211,0.017834365367889404,0.0185865368694067,0.019338708370923996,0.02009088173508644,0.020843053236603737,0.021595224738121033,0.02234739623963833]},"parameters/net.5.linear.bias":{"bins":[-0.12266549468040466,-0.11863543838262558,-0.1146053820848465,-0.11057533323764801,-0.10654527693986893,-0.10251522064208984,-0.09848517179489136,-0.09445511549711227,-0.09042505919933319,-0.08639500290155411,-0.08236494660377502,-0.07833489775657654,-0.07430484145879745,-0.07027478516101837,-0.06624473631381989,-0.0622146800160408,-0.05818462371826172,-0.054154567420482635,-0.05012451484799385,-0.046094462275505066,-0.04206440597772598,-0.0380343496799469,-0.034004297107458115,-0.02997424267232418,-0.025944188237190247,-0.021914133802056313,-0.01788407936692238,-0.013854024931788445,-0.00982397049665451,-0.0057939160615205765,-0.0017638616263866425,0.0022661928087472916,0.006296232342720032,0.010326286777853966,0.0143563412129879,0.018386395648121834,0.022416450083255768,0.026446504518389702,0.030476558953523636,0.03450661152601242,0.038536667823791504,0.04256672412157059,0.04659677669405937,0.05062682926654816,0.05465688556432724,0.05868694186210632,0.06271699070930481,0.06674704700708389,0.07077710330486298,0.07480715960264206,0.07883721590042114,0.08286726474761963,0.08689732104539871,0.0909273773431778,0.09495742619037628,0.09898748248815536,0.10301753878593445,0.10704759508371353,0.11107765138149261,0.1151077002286911,0.11913775652647018,0.12316781282424927,0.12719786167144775,0.13122792541980743,0.13525797426700592],"_type":"histogram","values":[1,1,3,2,2,1,3,1,3,0,4,0,1,0,0,1,1,0,2,1,1,0,1,0,0,2,1,0,3,2,1,1,0,0,1,1,0,2,0,0,0,3,1,0,3,0,0,2,1,1,2,0,0,0,1,1,0,1,1,1,0,1,1,1]},"parameters/net.2.linear.weight":{"_type":"histogram","values":[3,3,4,2,7,8,7,13,11,20,21,25,30,39,45,59,78,71,90,100,113,122,125,146,168,156,156,189,162,194,179,190,167,161,160,139,164,106,99,91,93,70,66,56,36,28,32,18,21,14,6,11,3,3,4,4,3,1,3,0,0,0,0,1],"bins":[-0.01750330626964569,-0.016899768263101578,-0.016296230256557465,-0.01569269225001335,-0.015089154243469238,-0.01448561530560255,-0.013882077299058437,-0.013278539292514324,-0.012675001285970211,-0.012071463279426098,-0.011467925272881985,-0.010864387266337872,-0.010260848328471184,-0.00965731032192707,-0.009053772315382957,-0.008450234308838844,-0.007846696302294731,-0.007243158295750618,-0.006639620289206505,-0.006036081817001104,-0.005432543810456991,-0.004829005803912878,-0.004225467331707478,-0.0036219293251633644,-0.0030183913186192513,-0.002414853312075138,-0.0018113150727003813,-0.0012077769497409463,-0.0006042388267815113,-7.007038220763206e-07,0.0006028374191373587,0.0012063755420967937,0.0018099118024110794,0.0024134498089551926,0.0030169880483299494,0.003620526287704706,0.004224064294248819,0.0048276023007929325,0.005431140772998333,0.006034678779542446,0.006638216786086559,0.0072417547926306725,0.007845292799174786,0.008448830805718899,0.009052369743585587,0.0096559077501297,0.010259445756673813,0.010862983763217926,0.01146652176976204,0.012070059776306152,0.012673597782850266,0.013277135789394379,0.013880673795938492,0.01448421273380518,0.015087750740349293,0.01569128781557083,0.016294825822114944,0.016898365691304207,0.01750190369784832,0.018105441704392433,0.018708979710936546,0.01931251771748066,0.019916055724024773,0.020519593730568886,0.021123131737113]},"gradients/net.1.linear.weight":{"values":[2,1,2,3,2,1,6,6,6,6,9,18,19,23,36,35,50,45,64,85,101,134,124,149,172,202,216,197,197,217,192,211,198,192,177,138,123,123,106,79,83,78,45,49,45,24,18,20,19,10,9,11,4,2,1,1,1,3,2,1,1,1,0,1],"bins":[-3.614837140730742e-08,-3.4938512527560306e-08,-3.372865720052687e-08,-3.251879832077975e-08,-3.1308942993746314e-08,-3.00990841139992e-08,-2.888922523425208e-08,-2.7679368130861803e-08,-2.6469511027471526e-08,-2.525965392408125e-08,-2.4049796820690972e-08,-2.2839937940943855e-08,-2.1630080837553578e-08,-2.04202237341633e-08,-1.9210364854416184e-08,-1.8000507751025907e-08,-1.679065064763563e-08,-1.5580793544245353e-08,-1.4370935552676656e-08,-1.3161077561107959e-08,-1.1951220457717682e-08,-1.0741363354327405e-08,-9.531505362758708e-09,-8.32164737119001e-09,-7.1117902677997336e-09,-5.9019327203202465e-09,-4.6920751728407595e-09,-3.4822176253612724e-09,-2.2723600778817854e-09,-1.0625025304022984e-09,1.4735501707718868e-10,1.3572125645566757e-09,2.5670736647498416e-09,3.776931212229329e-09,4.986788759708816e-09,6.196646307188303e-09,7.40650385466779e-09,8.616360958058067e-09,9.826218949626764e-09,1.103607694119546e-08,1.2245934044585738e-08,1.3455791147976015e-08,1.4665649139544712e-08,1.587550713111341e-08,1.7085364234503686e-08,1.8295221337893963e-08,1.950508021764108e-08,2.0714937321031357e-08,2.1924794424421634e-08,2.313465152781191e-08,2.434450863120219e-08,2.5554367510949305e-08,2.6764224614339582e-08,2.797408171772986e-08,2.9183940597476976e-08,3.0393795924510414e-08,3.160365480425753e-08,3.281351368400465e-08,3.4023369011038085e-08,3.52332278907852e-08,3.644308321781864e-08,3.7652942097565756e-08,3.886280097731287e-08,4.007265630434631e-08,4.128251518409343e-08],"_type":"histogram"},"flow_visualization":{"sha256":"2591a211cc0463379fb4b2fcc78dadaa36fc3cf68484afb6760558f71b945238","size":162562,"path":"media/images/flow_visualization_4500_2591a211cc0463379fb4.png","format":"png","width":1800,"height":500,"caption":"Epoch 4500","_type":"image-file"},"parameters/net.5.linear.weight":{"bins":[-0.02148371748626232,-0.020854627713561058,-0.020225539803504944,-0.01959645003080368,-0.018967360258102417,-0.018338270485401154,-0.01770918071269989,-0.017080092802643776,-0.016451003029942513,-0.01582191325724125,-0.01519282441586256,-0.014563735574483871,-0.013934645801782608,-0.013305556029081345,-0.012676467187702656,-0.012047378346323967,-0.011418288573622704,-0.01078919880092144,-0.010160109959542751,-0.009531021118164062,-0.008901931345462799,-0.008272841572761536,-0.007643752731382847,-0.007014663424342871,-0.006385574117302895,-0.0057564848102629185,-0.005127395503222942,-0.004498306196182966,-0.00386921688914299,-0.003240127582103014,-0.002611038275063038,-0.0019819489680230618,-0.0013528615236282349,-0.0007237722165882587,-9.468290954828262e-05,0.0005344063974916935,0.0011634957045316696,0.0017925850115716457,0.002421674318611622,0.003050763625651598,0.003679852932691574,0.00430894223973155,0.004938031546771526,0.0055671208538115025,0.006196210160851479,0.006825299467891455,0.007454388774931431,0.00808347761631012,0.008712567389011383,0.009341657161712646,0.009970746003091335,0.010599834844470024,0.011228924617171288,0.011858014389872551,0.01248710323125124,0.013116192072629929,0.013745281845331192,0.014374371618032455,0.015003460459411144,0.015632549300789833,0.016261639073491096,0.01689072884619236,0.017519816756248474,0.018148906528949738,0.018777996301651],"_type":"histogram","values":[1,0,0,0,0,1,2,3,3,2,5,6,10,13,9,26,22,25,26,48,39,66,68,89,85,135,142,162,142,140,184,178,171,191,197,213,180,170,206,174,140,140,121,112,94,66,53,48,38,33,21,27,16,7,13,8,5,7,4,3,4,1,0,1]},"gradients/net.1.linear.bias":{"_type":"histogram","values":[1,0,1,0,0,0,0,0,0,0,0,0,0,0,0,0,1,0,0,3,0,2,1,1,1,3,2,0,2,3,2,2,2,0,5,1,1,2,2,2,0,3,2,2,0,1,1,2,0,1,1,1,3,1,0,1,2,0,1,0,1,0,0,1],"bins":[-3.474764653788043e-08,-3.3829135048790704e-08,-3.291062355970098e-08,-3.1992112070611256e-08,-3.107360058152153e-08,-3.015508909243181e-08,-2.9236577603342084e-08,-2.831806611425236e-08,-2.7399554625162637e-08,-2.6481044912429752e-08,-2.5562533423340028e-08,-2.4644021934250304e-08,-2.372551044516058e-08,-2.2806998956070856e-08,-2.1888487466981132e-08,-2.096997597789141e-08,-2.0051464488801685e-08,-1.913295299971196e-08,-1.8214441510622237e-08,-1.7295930021532513e-08,-1.637741853244279e-08,-1.5458907043353065e-08,-1.4540396442441761e-08,-1.3621884953352037e-08,-1.2703373464262313e-08,-1.1784861975172589e-08,-1.0866350486082865e-08,-9.947838996993141e-09,-9.029328396081837e-09,-8.110816906992113e-09,-7.192305417902389e-09,-6.273793928812665e-09,-5.3552824397229415e-09,-4.4367709506332176e-09,-3.5182596835880986e-09,-2.5997484165429796e-09,-1.6812369274532557e-09,-7.627255493858343e-10,1.557858286815872e-10,1.0742972067490086e-09,1.99280858481643e-09,2.911320073906154e-09,3.829831562995878e-09,4.748342607996392e-09,5.666854097086116e-09,6.58536558617584e-09,7.503876631176354e-09,8.422388120266078e-09,9.340899609355802e-09,1.0259411098445526e-08,1.117792258753525e-08,1.2096434076624973e-08,1.3014945565714697e-08,1.3933456166626002e-08,1.4851967655715725e-08,1.577048003298387e-08,1.6688989745716754e-08,1.7607501234806477e-08,1.85260127238962e-08,1.9444524212985925e-08,2.036303570207565e-08,2.1281547191165373e-08,2.2200058680255097e-08,2.311857016934482e-08,2.4037081658434545e-08]},"loss/physics":7.804501045427514e-09,"parameters/net.2.linear.bias":{"bins":[-0.12587691843509674,-0.12191857397556305,-0.11796022951602936,-0.11400188505649567,-0.11004354059696198,-0.10608518868684769,-0.102126844227314,-0.0981684997677803,-0.09421015530824661,-0.09025181084871292,-0.08629346638917923,-0.08233512192964554,-0.07837677001953125,-0.07441842555999756,-0.07046008110046387,-0.06650173664093018,-0.06254339218139648,-0.05858504772186279,-0.0546267032623291,-0.05066835507750511,-0.04671001061797142,-0.04275166615843773,-0.03879331797361374,-0.03483497351408005,-0.030876629054546356,-0.026918284595012665,-0.022959938272833824,-0.019001591950654984,-0.015043247491121292,-0.011084902100265026,-0.00712655670940876,-0.003168211318552494,0.000790134072303772,0.004748479463160038,0.008706824854016304,0.01266517024487257,0.016623515635728836,0.020581860095262527,0.024540206417441368,0.02849855273962021,0.0324568971991539,0.03641524165868759,0.04037358611822128,0.04433193430304527,0.048290278762578964,0.052248623222112656,0.056206971406936646,0.06016531586647034,0.06412366032600403,0.06808200478553772,0.07204034924507141,0.0759986937046051,0.0799570381641388,0.08391539007425308,0.08787373453378677,0.09183207899332047,0.09579042345285416,0.09974876791238785,0.10370711237192154,0.10766545683145523,0.11162380874156952,0.11558215320110321,0.1195404976606369,0.1234988421201706,0.12745718657970428],"_type":"histogram","values":[1,2,0,0,1,0,0,2,0,3,1,1,1,1,4,1,1,2,1,3,1,0,0,2,2,0,0,2,0,0,0,1,0,1,1,0,2,1,1,1,1,2,2,0,0,1,1,2,1,1,1,1,0,3,1,0,1,0,0,2,0,1,2,1]},"loss/total":1.0693610441592227e-08,"parameters/net.4.linear.weight":{"values":[1,0,0,0,2,2,3,5,4,6,5,9,14,21,21,22,25,28,39,51,55,67,81,79,103,131,133,131,136,160,165,178,186,184,191,173,180,174,130,148,135,113,101,124,94,80,65,48,53,50,38,42,33,22,16,12,11,7,4,2,0,1,1,1],"bins":[-0.020551122725009918,-0.019947923719882965,-0.01934472657740116,-0.018741527572274208,-0.018138328567147255,-0.01753513142466545,-0.016931932419538498,-0.016328733414411545,-0.01572553440928459,-0.015122337266802788,-0.014519138261675835,-0.013915940187871456,-0.013312742114067078,-0.012709543108940125,-0.012106345035135746,-0.011503146030008793,-0.010899947956204414,-0.010296749882400036,-0.009693550877273083,-0.009090352803468704,-0.008487153798341751,-0.007883955724537373,-0.007280757650732994,-0.006677559111267328,-0.0060743605718016624,-0.005471162032335997,-0.004867963492870331,-0.004264765419065952,-0.0036615668796002865,-0.0030583683401346207,-0.0024551700334995985,-0.0018519716104492545,-0.0012487750500440598,-0.0006455766269937158,-4.237820394337177e-05,0.0005608202191069722,0.0011640186421573162,0.0017672170652076602,0.002370415488258004,0.0029736137948930264,0.003576812334358692,0.004180010873824358,0.004783209413290024,0.005386407487094402,0.005989606026560068,0.006592804566025734,0.0071960026398301125,0.007799201179295778,0.008402399718761444,0.009005597792565823,0.009608796797692776,0.010211994871497154,0.010815193876624107,0.011418391950428486,0.012021590024232864,0.012624789029359818,0.013227987103164196,0.013831185176968575,0.014434384182095528,0.015037582255899906,0.015640780329704285,0.016243979334831238,0.01684717833995819,0.017450375482439995,0.018053574487566948],"_type":"histogram"},"gradients/net.2.linear.bias":{"values":[2,0,0,0,0,0,0,0,0,1,0,2,1,1,1,0,0,0,0,0,1,2,1,1,0,2,0,2,2,1,1,1,2,0,2,2,2,6,1,0,1,1,1,2,0,3,0,2,0,2,0,2,1,1,1,0,2,2,1,1,0,1,0,3],"bins":[-3.0169701403792715e-08,-2.93274560192458e-08,-2.8485210634698888e-08,-2.7642963473795135e-08,-2.680071808924822e-08,-2.5958472704701308e-08,-2.5116225543797555e-08,-2.427398015925064e-08,-2.3431734774703727e-08,-2.2589489390156814e-08,-2.17472440056099e-08,-2.0904996844706147e-08,-2.0062751460159234e-08,-1.922050607561232e-08,-1.8378258914708567e-08,-1.7536013530161654e-08,-1.669376814561474e-08,-1.5851522761067827e-08,-1.5009277376520913e-08,-1.416703021561716e-08,-1.3324784831070247e-08,-1.2482539446523333e-08,-1.1640293173798e-08,-1.0798046901072667e-08,-9.955801516525753e-09,-9.11355613197884e-09,-8.271309859253506e-09,-7.429064030617383e-09,-6.586818201981259e-09,-5.744572373345136e-09,-4.9023265447090125e-09,-4.060080716072889e-09,-3.2178348874367657e-09,-2.3755890588006423e-09,-1.533343230164519e-09,-6.910974015283955e-10,1.511484271077279e-10,9.933942557438513e-10,1.8356400843799747e-09,2.677885913016098e-09,3.5201317416522215e-09,4.362377570288345e-09,5.204623398924468e-09,6.046869227560592e-09,6.889115056196715e-09,7.731360440743629e-09,8.573606713468962e-09,9.415852986194295e-09,1.0258098370741209e-08,1.1100343755288122e-08,1.1942590028013456e-08,1.2784836300738789e-08,1.3627081685285702e-08,1.4469327069832616e-08,1.531157423073637e-08,1.6153819615283282e-08,1.6996064999830196e-08,1.783831038437711e-08,1.8680555768924023e-08,1.9522802929827776e-08,2.036504831437469e-08,2.1207293698921603e-08,2.2049540859825356e-08,2.289178624437227e-08,2.3734031628919183e-08],"_type":"histogram"},"gradients/net.5.linear.weight":{"values":[34,1,0,0,0,0,0,0,0,0,0,0,0,0,0,0,0,0,0,0,0,35,35,34,36,111,46,163,151,472,587,378,344,631,480,94,156,72,91,29,29,29,29,0,0,0,0,0,0,0,0,0,0,0,0,0,0,0,0,0,0,0,0,29],"bins":[-3.0161831091390923e-05,-2.921808118117042e-05,-2.827433308993932e-05,-2.733058499870822e-05,-2.6386835088487715e-05,-2.544308517826721e-05,-2.449933708703611e-05,-2.355558899580501e-05,-2.2611839085584506e-05,-2.1668089175364003e-05,-2.0724341084132902e-05,-1.9780592992901802e-05,-1.8836843082681298e-05,-1.7893093172460794e-05,-1.6949345081229694e-05,-1.6005596989998594e-05,-1.506184707977809e-05,-1.4118098079052288e-05,-1.3174349078326486e-05,-1.2230600077600684e-05,-1.1286851076874882e-05,-1.034310207614908e-05,-9.399353075423278e-06,-8.455604074697476e-06,-7.511855073971674e-06,-6.568106073245872e-06,-5.62435707252007e-06,-4.680608071794268e-06,-3.7368590710684657e-06,-2.7931100703426637e-06,-1.8493610696168616e-06,-9.056120688910596e-07,3.813511284533888e-08,9.81884113571141e-07,1.925633114296943e-06,2.869382115022745e-06,3.813131115748547e-06,4.756880116474349e-06,5.700629117200151e-06,6.644378117925953e-06,7.588127118651755e-06,8.531876119377557e-06,9.47562512010336e-06,1.0419374120829161e-05,1.1363123121554963e-05,1.2306872122280765e-05,1.3250621123006567e-05,1.419437012373237e-05,1.5138119124458171e-05,1.608186721568927e-05,1.7025617125909775e-05,1.796936703613028e-05,1.891311512736138e-05,1.985686321859248e-05,2.0800613128812984e-05,2.1744363039033487e-05,2.2688111130264588e-05,2.3631859221495688e-05,2.4575609131716192e-05,2.5519359041936696e-05,2.6463107133167796e-05,2.7406855224398896e-05,2.83506051346194e-05,2.9294355044839904e-05,3.0238103136071004e-05],"_type":"histogram"},"parameters/final_linear.weight":{"_type":"histogram","values":[2,0,0,2,1,0,3,2,0,1,3,1,3,1,1,1,1,4,0,0,0,0,0,1,1,3,5,4,14,21,23,28,15,8,5,4,4,0,0,1,0,3,2,1,1,3,1,1,2,2,3,2,0,2,2,0,2,1,0,0,0,0,0,1],"bins":[-0.03431849181652069,-0.03320358693599701,-0.03208868205547333,-0.030973779037594795,-0.029858874157071114,-0.028743969276547432,-0.0276290662586689,-0.026514161378145218,-0.025399256497621536,-0.024284351617097855,-0.023169446736574173,-0.02205454371869564,-0.02093963883817196,-0.019824733957648277,-0.018709830939769745,-0.017594926059246063,-0.01648002117872238,-0.0153651162981987,-0.014250212348997593,-0.013135308399796486,-0.012020403519272804,-0.010905498638749123,-0.009790594689548016,-0.008675690740346909,-0.007560785859823227,-0.006445881444960833,-0.005330977030098438,-0.004216072615236044,-0.0031011682003736496,-0.0019862637855112553,-0.0008713593706488609,0.0002435450442135334,0.0013584457337856293,0.0024733501486480236,0.003588254563510418,0.004703158978372812,0.005818063393235207,0.006932967808097601,0.008047872222959995,0.009162776172161102,0.010277681052684784,0.011392585933208466,0.012507489882409573,0.01362239383161068,0.014737298712134361,0.015852203592658043,0.016967106610536575,0.018082011491060257,0.01919691637158394,0.02031182125210762,0.021426726132631302,0.022541629150509834,0.023656534031033516,0.024771438911557198,0.02588634192943573,0.02700124680995941,0.028116151690483093,0.029231056571006775,0.030345961451530457,0.03146086633205414,0.03257577121257782,0.0336906723678112,0.034805577248334885,0.035920482128858566,0.03703538700938225]},"gradients/net.5.linear.bias":{"values":[2,1,1,2,0,4,2,6,8,4,3,3,6,1,6,4,1,2,1,0,0,2,1,0,1,0,1,1,0,0,0,0,0,0,0,0,0,0,0,0,0,0,0,0,0,0,0,0,0,0,0,0,0,0,0,0,0,0,0,0,0,0,0,1],"bins":[-5.835644515173044e-06,-5.2736645557160955e-06,-4.711684596259147e-06,-4.149705091549549e-06,-3.5877251320926007e-06,-3.025745172635652e-06,-2.463765440552379e-06,-1.9017855947822682e-06,-1.3398057490121573e-06,-7.778259032420465e-07,-2.1584605747193564e-07,3.461337882981752e-07,9.08113634068286e-07,1.4700934798383969e-06,2.0320733256085077e-06,2.594053057691781e-06,3.1560330171487294e-06,3.718012976605678e-06,4.2799929360626265e-06,4.841972440772224e-06,5.403952400229173e-06,5.965932359686121e-06,6.527911864395719e-06,7.089891823852668e-06,7.651871783309616e-06,8.213851288019214e-06,8.775831702223513e-06,9.337811206933111e-06,9.89979162113741e-06,1.0461771125847008e-05,1.1023750630556606e-05,1.1585731044760905e-05,1.2147711458965205e-05,1.2709690963674802e-05,1.3271671377879102e-05,1.38336508825887e-05,1.4395631296792999e-05,1.4957610801502597e-05,1.5519590306212194e-05,1.6081570720416494e-05,1.664354931563139e-05,1.720552972983569e-05,1.776751014403999e-05,1.8329490558244288e-05,1.8891469153459184e-05,1.9453449567663483e-05,2.0015429981867783e-05,2.057740857708268e-05,2.1139388991286978e-05,2.1701369405491278e-05,2.2263348000706173e-05,2.2825328414910473e-05,2.3387308829114772e-05,2.3949287424329668e-05,2.4511267838533968e-05,2.5073248252738267e-05,2.5635228666942567e-05,2.6197207262157463e-05,2.6759187676361762e-05,2.732116809056606e-05,2.7883146685780957e-05,2.8445127099985257e-05,2.9007107514189556e-05,2.9569086109404452e-05,3.013106652360875e-05],"_type":"histogram"},"parameters/net.0.linear.bias":{"bins":[-0.6870155334472656,-0.6652930974960327,-0.643570601940155,-0.6218481659889221,-0.6001256704330444,-0.5784032344818115,-0.5566807389259338,-0.5349583029747009,-0.5132358074188232,-0.49151337146759033,-0.46979090571403503,-0.44806843996047974,-0.4263460040092468,-0.40462353825569153,-0.38290107250213623,-0.36117860674858093,-0.33945614099502563,-0.31773367524147034,-0.29601120948791504,-0.27428874373435974,-0.25256627798080444,-0.23084382712841034,-0.20912137627601624,-0.18739891052246094,-0.16567644476890564,-0.14395397901535034,-0.12223152071237564,-0.10050906240940094,-0.07878659665584564,-0.05706413462758064,-0.03534167259931564,-0.013619210571050644,0.008103251457214355,0.029825713485479355,0.051548175513744354,0.07327063381671906,0.09499309957027435,0.11671556532382965,0.13843801617622375,0.16016048192977905,0.18188294768333435,0.20360541343688965,0.22532787919044495,0.24705033004283905,0.26877278089523315,0.29049524664878845,0.31221771240234375,0.33394017815589905,0.35566264390945435,0.37738510966300964,0.39910757541656494,0.42083004117012024,0.44255250692367554,0.46427494287490845,0.48599740862846375,0.507719874382019,0.529442310333252,0.5511648058891296,0.5728872418403625,0.5946097373962402,0.6163321733474731,0.6380546689033508,0.6597771048545837,0.6814996004104614,0.7032220363616943],"_type":"histogram","values":[2,1,0,1,0,1,1,3,0,1,2,1,1,2,1,2,0,2,0,2,1,1,0,0,0,0,1,0,1,1,1,1,2,2,1,2,0,2,0,1,0,0,0,0,1,1,2,1,3,1,1,0,2,1,1,0,1,1,1,0,1,4,0,2]},"_runtime":1145.245315125,"_timestamp":1.766150884904035e+09,"gradients/net.3.linear.bias":{"bins":[-4.5934697823213355e-08,-4.454199142855941e-08,-4.314928503390547e-08,-4.175657863925153e-08,-4.0363875797311266e-08,-3.8971169402657324e-08,-3.757846300800338e-08,-3.618575661334944e-08,-3.47930502186955e-08,-3.3400343824041556e-08,-3.200764098210129e-08,-3.061493458744735e-08,-2.922222819279341e-08,-2.7829521798139467e-08,-2.6436815403485525e-08,-2.5044110785188423e-08,-2.365140439053448e-08,-2.225869799588054e-08,-2.0865993377583436e-08,-1.9473286982929494e-08,-1.8080580588275552e-08,-1.668787596997845e-08,-1.5295169575324508e-08,-1.3902463180670566e-08,-1.2509757674195043e-08,-1.1117052167719521e-08,-9.724345773065579e-09,-8.331640266590057e-09,-6.938934316025325e-09,-5.546228365460593e-09,-4.15352285898507e-09,-2.7608169084203382e-09,-1.368110957855606e-09,2.4594881686823555e-11,1.4173007212292532e-09,2.8100064497493804e-09,4.2027124003141125e-09,5.595418350878845e-09,6.988123857354367e-09,8.380830252008309e-09,9.773535758483831e-09,1.1166241264959353e-08,1.2558947659613295e-08,1.3951653166088818e-08,1.534435867256434e-08,1.6737065067218282e-08,1.8129771461872224e-08,1.9522476080169326e-08,2.091518247482327e-08,2.230788886947721e-08,2.3700593487774313e-08,2.5093299882428255e-08,2.6486006277082197e-08,2.78787108953793e-08,2.927141729003324e-08,3.0664121908330344e-08,3.2056828302984286e-08,3.344953469763823e-08,3.484224109229217e-08,3.623494748694611e-08,3.7627653881600054e-08,3.902035672354032e-08,4.041306311819426e-08,4.18057695128482e-08,4.319847590750214e-08],"_type":"histogram","values":[1,0,0,0,0,0,0,0,0,1,1,0,1,4,1,1,1,1,0,2,0,1,0,1,2,3,3,0,2,0,4,4,3,2,1,0,1,3,2,0,2,1,3,1,1,2,1,1,0,0,0,0,0,1,1,0,0,0,1,0,0,1,1,1]},"parameters/net.3.linear.weight":{"values":[2,1,1,1,3,0,3,4,4,11,14,24,35,27,31,46,51,46,54,78,72,108,110,112,119,153,151,141,158,195,188,181,189,189,151,156,139,153,139,111,117,99,84,85,81,55,40,41,27,26,22,12,26,4,9,6,2,2,0,1,1,1,1,3],"bins":[-0.019562553614377975,-0.018943944945931435,-0.018325336277484894,-0.017706725746393204,-0.017088117077946663,-0.016469508409500122,-0.01585089974105358,-0.015232290141284466,-0.01461368054151535,-0.01399507187306881,-0.013376463204622269,-0.012757853604853153,-0.012139244936406612,-0.011520635336637497,-0.010902026668190956,-0.01028341706842184,-0.0096648083999753,-0.009046199731528759,-0.008427590131759644,-0.007808980997651815,-0.007190371863543987,-0.0065717631950974464,-0.005953154060989618,-0.00533454492688179,-0.004715935792773962,-0.004097326658666134,-0.0034787175245583057,-0.0028601086232811213,-0.002241499489173293,-0.001622890355065465,-0.0010042813373729587,-0.00038567226147279143,0.0002329368144273758,0.000851545890327543,0.0014701549662277102,0.0020887639839202166,0.0027073731180280447,0.003325982252135873,0.003944591153413057,0.0045632002875208855,0.005181809421628714,0.005800418555736542,0.00641902768984437,0.007037636823952198,0.007656245492398739,0.008274855092167854,0.008893463760614395,0.00951207336038351,0.010130682028830051,0.010749290697276592,0.011367900297045708,0.011986508965492249,0.012605118565261364,0.013223727233707905,0.01384233683347702,0.014460945501923561,0.015079554170370102,0.015698162838816643,0.016316773369908333,0.016935382038354874,0.017553990706801414,0.018172599375247955,0.018791209906339645,0.019409818574786186,0.020028427243232727],"_type":"histogram"},"parameters/net.4.linear.bias":{"values":[2,0,0,2,0,0,1,0,1,1,3,1,2,2,2,0,1,0,1,1,3,2,0,1,2,1,1,1,2,1,3,1,1,2,0,1,0,0,0,0,1,0,2,0,1,0,1,1,1,0,1,2,1,2,0,0,2,1,0,1,2,0,0,3],"bins":[-0.12123477458953857,-0.1173904538154602,-0.11354613304138184,-0.10970181226730347,-0.1058574914932251,-0.10201316326856613,-0.09816884249448776,-0.0943245217204094,-0.09048020094633102,-0.08663588017225266,-0.08279155939817429,-0.07894723862409592,-0.07510291039943695,-0.07125858962535858,-0.06741426885128021,-0.06356994807720184,-0.059725627303123474,-0.055881306529045105,-0.052036985754966736,-0.04819266125559807,-0.0443483404815197,-0.04050401970744133,-0.03665969520807266,-0.03281537443399429,-0.028971053659915924,-0.025126732885837555,-0.021282410249114037,-0.017438087612390518,-0.013593766838312149,-0.009749445132911205,-0.0059051234275102615,-0.0020608017221093178,0.001783527433872223,0.005627849139273167,0.00947217084467411,0.013316492550075054,0.017160814255475998,0.021005135029554367,0.024849457666277885,0.028693780303001404,0.03253810107707977,0.03638242185115814,0.04022674262523651,0.04407106712460518,0.04791538789868355,0.05175970867276192,0.055604033172130585,0.059448353946208954,0.06329267472028732,0.06713699549436569,0.07098131626844406,0.07482563704252243,0.0786699652671814,0.08251428604125977,0.08635860681533813,0.0902029275894165,0.09404724836349487,0.09789156913757324,0.10173588991165161,0.10558021068572998,0.10942453145980835,0.11326885968446732,0.11711318045854568,0.12095750123262405,0.12480182200670242],"_type":"histogram"},"gradients/net.0.linear.bias":{"_type":"histogram","values":[1,0,0,0,0,0,0,0,1,0,0,1,1,1,2,2,1,1,1,1,3,3,1,1,5,2,5,1,1,2,4,1,6,0,1,0,1,0,3,1,1,4,0,1,1,0,1,0,0,0,1,0,0,0,0,0,0,0,0,0,0,0,0,1],"bins":[-2.9042658056255277e-08,-2.794636166925102e-08,-2.685006528224676e-08,-2.575377067159934e-08,-2.4657474284595082e-08,-2.3561177897590824e-08,-2.2464881510586565e-08,-2.1368585123582307e-08,-2.0272288736578048e-08,-1.917599412593063e-08,-1.807969773892637e-08,-1.698340135192211e-08,-1.5887104964917853e-08,-1.4790809466092014e-08,-1.3694513079087756e-08,-1.2598217580261917e-08,-1.1501921193257658e-08,-1.04056248062534e-08,-9.30932930742756e-09,-8.213032920423302e-09,-7.116736977508253e-09,-6.020441034593205e-09,-4.924144647588946e-09,-3.827848704673897e-09,-2.7315527617588486e-09,-1.6352567078214975e-09,-5.389606538841463e-10,5.573354000532049e-10,1.6536314539905561e-09,2.749927396905605e-09,3.8462237839098634e-09,4.942519726824912e-09,6.0388138933831215e-09,7.13510983629817e-09,8.231405779213219e-09,9.327702166217477e-09,1.0423997665043316e-08,1.1520294052047575e-08,1.2616590439051834e-08,1.3712885937877672e-08,1.4809182324881931e-08,1.590547782370777e-08,1.700177421071203e-08,1.8098070597716287e-08,1.9194366984720546e-08,2.0290663371724804e-08,2.1386957982372223e-08,2.2483254369376482e-08,2.357955075638074e-08,2.4675847143385e-08,2.5772143530389258e-08,2.6868438141036677e-08,2.7964734528040935e-08,2.9061030915045194e-08,3.015732730204945e-08,3.125362368905371e-08,3.234992007605797e-08,3.344621646306223e-08,3.454251285006649e-08,3.5638805684357067e-08,3.6735102071361325e-08,3.7831398458365584e-08,3.892769484536984e-08,4.00239912323741e-08,4.112028761937836e-08]},"_step":4900,"parameters/net.0.linear.weight":{"bins":[-0.4858293831348419,-0.47069668769836426,-0.4555639624595642,-0.44043126702308655,-0.4252985417842865,-0.41016584634780884,-0.3950331509113312,-0.37990042567253113,-0.36476773023605347,-0.3496350049972534,-0.33450230956077576,-0.3193696141242981,-0.30423688888549805,-0.2891041934490204,-0.27397146821022034,-0.2588387727737427,-0.24370606243610382,-0.22857335209846497,-0.2134406417608261,-0.19830794632434845,-0.1831752359867096,-0.16804252564907074,-0.15290981531143188,-0.13777710497379303,-0.12264440208673477,-0.10751169174909592,-0.09237898886203766,-0.0772462785243988,-0.06211357191205025,-0.04698086529970169,-0.031848154962062836,-0.01671544834971428,-0.0015827417373657227,0.013549965806305408,0.02868267334997654,0.043815381824970245,0.0589480884373188,0.07408079504966736,0.08921350538730621,0.10434620827436447,0.11947891861200333,0.13461162149906158,0.14974433183670044,0.1648770421743393,0.18000975251197815,0.195142462849617,0.21027515828609467,0.22540786862373352,0.24054057896137238,0.25567328929901123,0.2708059847354889,0.28593870997428894,0.3010714054107666,0.31620413064956665,0.3313368260860443,0.346469521522522,0.361602246761322,0.3767349421977997,0.39186766743659973,0.4070003628730774,0.42213305830955505,0.4372657835483551,0.45239847898483276,0.4675312042236328,0.4826638996601105],"_type":"histogram","values":[4,4,1,3,1,5,2,3,2,1,2,2,1,0,2,4,2,2,4,2,2,1,1,0,2,3,5,1,2,1,1,4,1,3,0,1,0,1,1,0,2,8,3,2,2,1,2,2,2,3,1,3,0,1,3,2,0,2,4,3,0,1,1,3]},"parameters/final_linear.bias":{"values":[1,0,0,0,0,0,0,0,0,0,0,0,0,0,0,0,0,0,0,0,0,0,0,0,0,0,0,0,0,0,0,0,0,0,0,0,0,0,0,0,0,0,0,0,0,0,0,0,0,1,0,0,0,0,0,0,0,0,0,0,0,0,0,1],"bins":[-0.08399082720279694,-0.08113083988428116,-0.07827084511518478,-0.075410857796669,-0.07255087047815323,-0.06969088315963745,-0.06683088839054108,-0.0639709010720253,-0.06111091375350952,-0.058250922709703445,-0.05539093166589737,-0.05253094434738159,-0.049670953303575516,-0.04681096598505974,-0.04395097494125366,-0.041090987622737885,-0.03823099657893181,-0.03537100553512573,-0.032511018216609955,-0.029651029035449028,-0.0267910398542881,-0.023931048810482025,-0.0210710596293211,-0.01821107044816017,-0.015351081266999245,-0.012491092085838318,-0.009631102904677391,-0.00677111279219389,-0.003911123611032963,-0.0010511341970413923,0.0018088552169501781,0.004668844863772392,0.007528834044933319,0.010388823226094246,0.013248812407255173,0.0161088015884161,0.018968790769577026,0.021828781813383102,0.02468877099454403,0.027548760175704956,0.030408749356865883,0.03326873853802681,0.036128729581832886,0.03898871690034866,0.04184870794415474,0.04470869526267052,0.04756868630647659,0.05042867362499237,0.05328866466879845,0.05614865571260452,0.0590086430311203,0.061868634074926376,0.06472862511873245,0.06758861243724823,0.07044859975576401,0.07330858707427979,0.07616858184337616,0.07902856916189194,0.08188855648040771,0.08474855124950409,0.08760853856801987,0.09046852588653564,0.09332851320505142,0.0961885079741478,0.09904849529266357],"_type":"histogram"},"gradients/net.4.linear.weight":{"_type":"histogram","values":[16,12,9,6,3,5,3,15,10,20,25,13,24,25,34,25,21,25,36,88,72,102,140,136,142,127,180,200,160,139,139,126,132,125,156,165,195,152,119,144,155,127,97,66,59,44,23,27,27,35,37,10,24,17,13,10,8,1,4,2,11,14,12,7],"bins":[-9.682607071681559e-08,-9.378295118267488e-08,-9.073983164853416e-08,-8.769671211439345e-08,-8.465359258025273e-08,-8.161048015153938e-08,-7.856736061739866e-08,-7.552424108325795e-08,-7.248112154911723e-08,-6.943800201497652e-08,-6.63948824808358e-08,-6.335176294669509e-08,-6.030865051798173e-08,-5.726552743112734e-08,-5.42224114497003e-08,-5.117929191555959e-08,-4.8136172381418874e-08,-4.509305284727816e-08,-4.2049933313137444e-08,-3.900681733171041e-08,-3.5963697797569694e-08,-3.292057826342898e-08,-2.987746228200194e-08,-2.683434274786123e-08,-2.3791223213720514e-08,-2.07481036795798e-08,-1.7704985921795924e-08,-1.4661867275833629e-08,-1.1618748629871334e-08,-8.575629983909039e-09,-5.532511337946744e-09,-2.489392691984449e-09,5.537259539778461e-10,3.596844599940141e-09,6.639963245902436e-09,9.683081891864731e-09,1.2726200537827026e-08,1.576932007196774e-08,1.8812437829751616e-08,2.185555558753549e-08,2.4898675121676206e-08,2.794179465581692e-08,3.0984914189957635e-08,3.402803017138467e-08,3.7071149705525386e-08,4.01142692396661e-08,4.3157385221093136e-08,4.620050475523385e-08,4.9243624289374566e-08,5.228674382351528e-08,5.5329863357655995e-08,5.837297933908303e-08,6.141610242593742e-08,6.445921485465078e-08,6.75023343887915e-08,7.054545392293221e-08,7.358857345707293e-08,7.663169299121364e-08,7.967481252535435e-08,8.271793205949507e-08,8.576104448820843e-08,8.880416402234914e-08,9.184728355648986e-08,9.489040309063057e-08,9.793352262477129e-08]},"_wandb":{"runtime":1145},"gradients/final_linear.weight":{"bins":[-7.592589827254415e-05,-7.35532958060503e-05,-7.118069333955646e-05,-6.880809087306261e-05,-6.643548840656877e-05,-6.406288594007492e-05,-6.169027619762346e-05,-5.9317677369108424e-05,-5.694507126463577e-05,-5.4572468798141927e-05,-5.219986633164808e-05,-4.9827263865154237e-05,-4.745466139866039e-05,-4.5082058932166547e-05,-4.2709452827693895e-05,-4.033685036120005e-05,-3.7964247894706205e-05,-3.559164542821236e-05,-3.3219042961718515e-05,-3.084643685724586e-05,-2.8473834390752017e-05,-2.6101231924258173e-05,-2.3728629457764328e-05,-2.135602517228108e-05,-1.8983422705787234e-05,-1.661082023929339e-05,-1.423821595381014e-05,-1.1865613487316296e-05,-9.493010111327749e-06,-7.120406735339202e-06,-4.747803814098006e-06,-2.375200665483135e-06,-2.597516868263483e-09,2.370005631746608e-06,4.742608780361479e-06,7.115211701602675e-06,9.487815077591222e-06,1.1860418453579769e-05,1.4233020920073614e-05,1.6605625205556862e-05,1.8978227672050707e-05,2.1350830138544552e-05,2.37234344240278e-05,2.6096036890521646e-05,2.846863935701549e-05,3.0841241823509336e-05,3.321384792798199e-05,3.558645039447583e-05,3.795905286096968e-05,4.033165532746352e-05,4.270425779395737e-05,4.507686389843002e-05,4.7449466364923865e-05,4.982206883141771e-05,5.2194671297911555e-05,5.45672737644054e-05,5.6939876230899245e-05,5.93124823353719e-05,6.168508116388693e-05,6.40576909063384e-05,6.643029337283224e-05,6.880289583932608e-05,7.117549830581993e-05,7.354810077231377e-05,7.592070323880762e-05],"_type":"histogram","values":[29,0,0,0,0,0,0,0,0,0,0,0,0,0,0,0,0,0,0,0,0,0,0,0,0,1,0,0,0,0,0,54,74,0,0,0,0,0,0,0,0,0,0,0,0,0,0,0,0,0,0,0,1,0,0,0,0,0,0,0,0,1,1,31]},"epoch":4900,"parameters/net.3.linear.bias":{"_type":"histogram","values":[3,2,1,0,2,1,0,1,0,0,1,0,2,1,0,0,0,2,1,0,0,0,1,2,2,2,1,1,1,3,0,2,2,1,1,1,0,0,2,0,2,1,1,0,2,0,1,1,0,0,1,1,2,2,1,1,0,2,1,0,3,1,0,2],"bins":[-0.12608978152275085,-0.12226429581642151,-0.11843881011009216,-0.11461332440376282,-0.11078783869743347,-0.10696235299110413,-0.10313685983419418,-0.09931137412786484,-0.09548588842153549,-0.09166040271520615,-0.0878349170088768,-0.08400943130254745,-0.08018394559621811,-0.07635845988988876,-0.07253297418355942,-0.06870748847723007,-0.06488199532032013,-0.06105651333928108,-0.057231027632951736,-0.05340553820133209,-0.04958005249500275,-0.0457545667886734,-0.041929081082344055,-0.03810359537601471,-0.034278109669685364,-0.03045262210071087,-0.026627134531736374,-0.022801648825407028,-0.018976163119077682,-0.015150675550103188,-0.011325189843773842,-0.0074997032061219215,-0.0036742165684700012,0.00015126983635127544,0.003976756241172552,0.007802242413163185,0.011627729050815105,0.015453215688467026,0.01927870139479637,0.023104188963770866,0.026929674670100212,0.030755160376429558,0.03458064794540405,0.0384061336517334,0.042231619358062744,0.04605710506439209,0.049882594496011734,0.05370808020234108,0.057533565908670425,0.06135905161499977,0.06518454104661942,0.06901002675294876,0.0728355124592781,0.07666099816560745,0.0804864838719368,0.08431196957826614,0.08813745528459549,0.09196294099092484,0.09578842669725418,0.09961391985416412,0.10343940556049347,0.10726489126682281,0.11109037697315216,0.1149158626794815,0.11874134838581085]},"gradients/final_linear.bias":{"values":[2,0,0,0,0,0,0,0,0,0,0,0,0,0,0,0,0,0,0,0,0,0,0,0,0,0,0,0,0,0,0,0,0,0,0,0,0,0,0,0,0,0,0,0,0,0,0,0,0,0,0,0,0,0,0,0,0,0,0,0,0,0,0,1],"bins":[0,1.186312488243857e-06,2.372624976487714e-06,3.558937351044733e-06,4.745249952975428e-06,5.931562554906122e-06,7.117874702089466e-06,8.304187758767512e-06,9.490499905950855e-06,1.06768120531342e-05,1.1863125109812245e-05,1.3049437256995589e-05,1.4235749404178932e-05,1.5422061551362276e-05,1.6608375517535023e-05,1.7794687664718367e-05,1.898099981190171e-05,2.0167311959085055e-05,2.13536241062684e-05,2.2539938072441146e-05,2.372625021962449e-05,2.4912562366807833e-05,2.6098874513991177e-05,2.728518666117452e-05,2.8471498808357865e-05,2.9657812774530612e-05,3.084412310272455e-05,3.20304388878867e-05,3.321675103507005e-05,3.440306318225339e-05,3.5589375329436734e-05,3.677568747662008e-05,3.796199962380342e-05,3.9148311770986766e-05,4.033462391817011e-05,4.152093606535345e-05,4.27072482125368e-05,4.389356035972014e-05,4.507987614488229e-05,4.6266188292065635e-05,4.745250043924898e-05,4.863881258643232e-05,4.982512473361567e-05,5.101143688079901e-05,5.2197749027982354e-05,5.33840611751657e-05,5.457037332234904e-05,5.5756685469532385e-05,5.694299761671573e-05,5.812931340187788e-05,5.9315625549061224e-05,6.050193769624457e-05,6.16882462054491e-05,6.287456199061126e-05,6.40608777757734e-05,6.524718628497794e-05,6.64335020701401e-05,6.761981057934463e-05,6.880612636450678e-05,6.999243487371132e-05,7.117875065887347e-05,7.2365059168078e-05,7.355137495324016e-05,7.473768346244469e-05,7.592399924760684e-05],"_type":"histogram"},"loss/boundary":2.889109396164713e-09}